let bestBrain = '{"levels":[{"inputs":[0.45392074620795464,0,0,0,0],"outputs":[1,0,1,0,1,0],"biases":[-0.2076401413263767,0.5162313660546911,-0.3182249781319296,0.11927533559628585,-0.24294099029671792,0.04162416657285681],"weights":[[0.46573476213718823,0.46469772796122166,0.12821710178527784,-0.13484058149596026,0.10104854733667726,-0.04788285261495248],[0.3276547275469658,0.13993431482741853,0.2892756767207676,0.014492769351888979,-0.5424675656613285,0.3508491286375349],[0.5464734753599475,-0.5403200996318437,0.3423538212206684,0.8023646880187203,-0.2727835079812795,-0.4835068525679913],[0.38019490945962425,0.15408515658683627,0.36334818367185584,0.6530742285517166,-0.3756164879154603,-0.41416790783761936],[0.2810751100973465,-0.4242443793761491,0.45324287248002426,0.10643497003398278,0.3394648559592472,-0.010810026540811979]]},{"inputs":[1,0,1,0,1,0],"outputs":[1,1,1,0],"biases":[-0.4176312447416818,0.4108754882148814,0.16538734662486992,-0.06481587890395285],"weights":[[0.5847626903590089,0.34358459003059627,0.16001767201987097,-0.5330395643557966],[0.16150608619838297,-0.2241521763504974,-0.14315283109516458,-0.42697547594537316],[0.2094402951375197,0.23425696237589724,-0.2886165209905079,-0.05910589134720841],[-0.28123276409534015,-0.30473722800847874,-0.20760871966111327,0.1881387026335824],[-0.21425330321345631,0.2678829746968704,0.43467974509952856,-0.6558166228353881],[0.4054726957403048,-0.6432870311341842,0.08343200831123487,0.3324374018154677]]}]}'